{
	"meta" : 	{
		"header" : "Regressor Analysis",
		"info" : 		{
			"title" : "Fourses Gamepad Test (4x4 grid)",
			"description" : "16 sounds, spread across -1. to 1. range",
			"comment" : "Created while testing dk.regressorcreate~ with audio from output C.",
			"date_created" : "2024-02-20 / 22:34:01",
			"num_entries" : 16,
			"input_dimensions" : [ 2 ],
			"output_dimensions" : [ 8 ],
			"output_parameter_names" : [ "slopea", "slopeb", "slopec", "sloped", "ratea", "rateb", "ratec", "rated" ],
			"synth_descriptors_analyzed" : 1
		}
,
		"setttings" : 		{
			"fftsettings" : "256 64 512 for the small size. medium is 512 64 1024 and when analyzing the largest window (22050) it's 2048 128 2048 (all relative to a 44.1k sample rate). this only applies to the internal parallel descriptor analysis.",
			"numframes" : "256, 4410, 22050 (relative to a 44.1k sample rate)",
			"descriptors" : "mean of loudness, deriv of loudness, mean of centroid, deriv of centroid, mean of flatness, deriv of flatness, mean of pitch, pitch confidence",
			"comment" : "8d of descriptors for the built-in parallel audio analysis of descriptor input for when being used to drive the regressor with audio input"
		}

	}
,
	"data" : 	{
		"datasets" : 		{
			"input" : 			{
				"cols" : 2,
				"data" : 				{
					"0" : [ -1.0, -1.0 ],
					"1" : [ -0.338582664728165, -1.0 ],
					"10" : [ 0.338582664728165, 0.338582664728165 ],
					"11" : [ 1.0, 0.338582664728165 ],
					"12" : [ -1.0, 1.0 ],
					"13" : [ -0.338582664728165, 1.0 ],
					"14" : [ 0.338582664728165, 1.0 ],
					"15" : [ 1.0, 1.0 ],
					"2" : [ 0.338582664728165, -1.0 ],
					"3" : [ 1.0, -1.0 ],
					"4" : [ -1.0, -0.338582664728165 ],
					"5" : [ -0.338582664728165, -0.338582664728165 ],
					"6" : [ 0.338582664728165, -0.338582664728165 ],
					"7" : [ 1.0, -0.338582664728165 ],
					"8" : [ -1.0, 0.338582664728165 ],
					"9" : [ -0.338582664728165, 0.338582664728165 ]
				}

			}
,
			"output" : 			{
				"cols" : 8,
				"data" : 				{
					"0" : [ 0.326015383005142, -0.562092304229736, -0.641268074512482, -0.843055367469788, -0.531670331954956, -0.35849529504776, 0.513479590415955, -0.010932465083897 ],
					"1" : [ -0.25631183385849, 0.95178896188736, -0.643564164638519, -0.396292239427567, -0.323612004518509, -0.429841279983521, 0.165356278419495, -0.943892955780029 ],
					"10" : [ -0.380608409643173, 0.107890397310257, 0.574027061462402, -0.620382368564606, -0.540770888328552, -0.357101291418076, 0.578192114830017, -0.87377655506134 ],
					"11" : [ 0.862402260303497, 0.470945537090302, -0.199695706367493, -0.406481564044952, -0.387946158647537, -0.326663494110107, 0.432638913393021, -0.85406482219696 ],
					"12" : [ -0.264684408903122, -0.313590347766876, 0.069793567061424, -0.927828192710876, -0.21104633808136, 0.657533824443817, 0.266605496406555, -0.379816383123398 ],
					"13" : [ 0.542584300041199, 0.267253309488297, -0.458738416433334, -0.1819798797369, 0.251729488372803, 0.737996280193329, 0.856567978858948, -0.428442090749741 ],
					"14" : [ -0.13422018289566, -0.000988829182461, -0.14564611017704, 0.743796825408936, -0.015834769234061, -0.708381772041321, -0.416897088289261, -0.239819452166557 ],
					"15" : [ 0.354810625314713, -0.053198121488094, 0.121099442243576, 0.012272631749511, -0.592985391616821, 0.328092932701111, -0.243773743510246, 0.145809665322304 ],
					"2" : [ 0.561761260032654, -0.475672483444214, -0.033117529004812, -0.09716422855854, 0.627499639987946, -0.629283905029297, 0.132259771227837, 0.417973667383194 ],
					"3" : [ 0.781435310840607, 0.627763390541077, -0.530634820461273, 0.869933009147644, 0.295307278633118, -0.042141012847424, 0.003910325001925, -0.277298510074615 ],
					"4" : [ -0.541769206523895, 0.879097104072571, 0.276763707399368, -0.568557679653168, -0.685092270374298, -0.999562978744507, 0.578146398067474, 0.708488643169403 ],
					"5" : [ 0.769845843315125, -0.882567703723907, 0.849890530109406, 0.667514503002167, -0.16998727619648, -0.355761498212814, 0.510242879390717, -0.363275438547134 ],
					"6" : [ -0.355687946081161, 0.343485951423645, 0.479613780975342, 0.431772619485855, 0.613909184932709, -0.71304839849472, 0.417006283998489, 0.772692918777466 ],
					"7" : [ -0.422827482223511, -0.479743897914886, -0.392199963331223, -0.908540070056915, -0.104600355029106, -0.435952574014664, 0.880604565143585, -0.293582797050476 ],
					"8" : [ -0.623845398426056, 0.536947250366211, -0.693861722946167, -0.648737132549286, 0.01695759780705, -0.372388601303101, -0.231567203998566, -0.65783166885376 ],
					"9" : [ -0.508261442184448, 0.621207714080811, -0.114421024918556, -0.9373739361763, -0.77072536945343, 0.049460139125586, 0.214997291564941, -0.65360414981842 ]
				}

			}

		}
,
		"synth_descriptors" : 		{
			"descriptors_256" : 			{
				"cols" : 8,
				"data" : 				{
					"0" : [ -18.343450546264648, 1.4290851354599, 52.050510406494141, -0.151361122727394, -54.587589263916016, 0.217875584959984, 27.48699951171875, 0.0 ],
					"1" : [ -10.643766403198242, 0.125160381197929, 48.559280395507812, 0.08210539072752, -48.7535400390625, 1.091131448745728, 27.48699951171875, 0.0 ],
					"10" : [ -12.976890563964844, 1.706777691841125, 56.990245819091797, -1.85529637336731, -45.458381652832031, -1.64423942565918, 27.48699951171875, 0.0 ],
					"11" : [ -9.286341667175293, 0.268995612859726, 75.895957946777344, -0.750708937644958, -34.860134124755859, -0.899377644062042, 73.627456665039062, 0.368086576461792 ],
					"12" : [ -11.963644981384277, 0.141547203063965, 51.804653167724609, 1.07268238067627, -49.253459930419922, 1.403388977050781, 86.524101257324219, 0.04807860404253 ],
					"13" : [ -9.435585975646973, -0.053827285766602, 64.126426696777344, 1.147210955619812, -40.774509429931641, 1.954921007156372, 82.376052856445312, 0.111336916685104 ],
					"14" : [ -11.488335609436035, 0.279626995325089, 48.875068664550781, -0.023015251383185, -52.870777130126953, 1.778857946395874, 27.48699951171875, 0.0 ],
					"15" : [ -21.047086715698242, 0.080534934997559, 48.539154052734375, -0.326320022344589, -50.558631896972656, 0.334139496088028, 27.48699951171875, 0.0 ],
					"2" : [ -11.71439266204834, -0.499251842498779, 58.455905914306641, 2.260161399841309, -41.147422790527344, 1.587148666381836, 73.787483215332031, 0.0 ],
					"3" : [ -15.758243560791016, 0.617566883563995, 48.510429382324219, 0.225148513913155, -60.270965576171875, 3.322606325149536, 27.48699951171875, 0.0 ],
					"4" : [ -13.362265586853027, -0.266210556030273, 63.846565246582031, -1.309829235076904, -38.367832183837891, -2.628098487854004, 72.046981811523438, 0.0 ],
					"5" : [ -23.470134735107422, 1.43682062625885, 48.217506408691406, 0.551958918571472, -62.162986755371094, 2.519488096237183, 27.48699951171875, 0.0 ],
					"6" : [ -11.895874977111816, 0.131066009402275, 48.378273010253906, -0.012713833712041, -46.336437225341797, 0.2975814640522, 27.48699951171875, 0.0 ],
					"7" : [ -7.16019868850708, 0.304648250341415, 88.007675170898438, 1.595399260520935, -38.551170349121094, 2.459378242492676, 82.810264587402344, 0.750810265541077 ],
					"8" : [ -11.474648475646973, 0.115238189697266, 48.551692962646484, 0.060918308794498, -51.791221618652344, 1.578447461128235, 27.48699951171875, 0.0 ],
					"9" : [ -12.003290176391602, 0.071007251739502, 50.134979248046875, 0.395185440778732, -63.601917266845703, -1.743583917617798, 77.047119140625, 0.0 ]
				}

			}
,
			"descriptors_4410" : 			{
				"cols" : 8,
				"data" : 				{
					"0" : [ -11.15972900390625, 0.113535515964031, 41.979259490966797, -0.044947873800993, -77.609443664550781, -0.015017342753708, 27.48699951171875, 0.0 ],
					"1" : [ -30.202322006225586, 0.020433183759451, 32.043811798095703, 0.036589842289686, -93.400077819824219, 0.079809106886387, 27.48699951171875, 0.0 ],
					"10" : [ -9.618861198425293, 0.112170003354549, 44.658321380615234, -0.182313740253448, -69.070075988769531, -0.142252519726753, 27.48699951171875, 0.0 ],
					"11" : [ -8.370705604553223, 0.011960042640567, 56.847938537597656, -0.036902457475662, -63.489727020263672, -0.049468223005533, 76.621665954589844, 0.624937653541565 ],
					"12" : [ -12.383926391601562, 0.031921043992043, 35.301540374755859, 0.112908236682415, -94.639556884765625, 0.097947880625725, 85.846672058105469, 0.176374539732933 ],
					"13" : [ -23.782138824462891, 0.038985799998045, 36.299057006835938, -0.069222189486027, -112.994132995605469, 0.667363882064819, 27.48699951171875, 0.0 ],
					"14" : [ -21.400444030761719, 0.03361938521266, 31.895559310913086, 0.014974516816437, -77.091285705566406, 0.051706239581108, 116.318519592285156, 0.00068994704634 ],
					"15" : [ -26.194736480712891, 0.019982248544693, 32.065750122070312, -0.009403856471181, -89.113182067871094, 0.02283619903028, 85.266502380371094, 0.0 ],
					"2" : [ -10.181041717529297, 0.00571770966053, 42.695293426513672, -0.098202966153622, -78.856964111328125, -0.31896248459816, 72.248603820800781, 0.414297610521317 ],
					"3" : [ -16.563488006591797, 0.00549146020785, 33.234394073486328, 0.234360083937645, -136.609878540039062, 0.611726582050323, 27.48699951171875, 0.0 ],
					"4" : [ -12.531274795532227, 0.015190785750747, 38.810295104980469, -0.166658103466034, -50.331535339355469, -0.061661388725042, 93.945777893066406, 0.0 ],
					"5" : [ -18.345170974731445, -0.026612471789122, 33.500495910644531, 0.062799498438835, -146.013107299804688, 0.411008149385452, 27.48699951171875, 0.0 ],
					"6" : [ -22.980648040771484, 0.023475952446461, 31.818836212158203, 0.029241869226098, -73.837432861328125, 0.017177820205688, 27.48699951171875, 0.0 ],
					"7" : [ -6.435696125030518, 0.002612635260448, 68.080863952636719, -0.016555812209845, -66.795135498046875, 0.196242168545723, 87.163536071777344, 0.759616434574127 ],
					"8" : [ -28.042304992675781, -0.017992643639445, 31.995143890380859, 0.018834784626961, -168.071334838867188, 0.3782958984375, 27.48699951171875, 0.0 ],
					"9" : [ -17.459909439086914, 0.057411510497332, 33.563545227050781, 0.098137460649014, -105.648963928222656, 0.331497967243195, 27.48699951171875, 0.0 ]
				}

			}
,
			"descriptors_22050" : 			{
				"cols" : 8,
				"data" : 				{
					"0" : [ -10.667717933654785, -0.034525610506535, 37.909328460693359, 0.068944983184338, -76.921241760253906, 0.033407986164093, 41.618537902832031, 0.459943801164627 ],
					"1" : [ -32.291725158691406, -0.005817556288093, 18.266130447387695, 0.158503472805023, -99.645988464355469, 0.079560793936253, 27.48699951171875, 0.0 ],
					"10" : [ -9.629509925842285, -0.110262051224709, 36.124652862548828, 0.002156598959118, -75.868553161621094, 0.001666626310907, 52.330783843994141, 0.657786786556244 ],
					"11" : [ -7.918022155761719, -0.024287585169077, 55.81689453125, -0.079832002520561, -66.091842651367188, -0.063893422484398, 74.282966613769531, 0.776192724704742 ],
					"12" : [ -12.778317451477051, -0.006154881324619, 21.794143676757812, 0.111696340143681, -99.614051818847656, 0.092036388814449, 85.43341064453125, 0.201701059937477 ],
					"13" : [ -19.151918411254883, -0.018461432307959, 27.927932739257812, 0.000615437282249, -83.179946899414062, 0.165162280201912, 59.510604858398438, 0.023495234549046 ],
					"14" : [ -21.083658218383789, -0.009958378970623, 18.19007682800293, 0.122618474066257, -104.897254943847656, 0.073229402303696, 27.48699951171875, 0.0 ],
					"15" : [ -26.399497985839844, 0.00238019763492, 18.632390975952148, 0.119823686778545, -95.659576416015625, 0.075110025703907, 83.926925659179688, 0.016387246549129 ],
					"2" : [ -10.340291023254395, -0.015903340652585, 31.124616622924805, 0.083320662379265, -81.965049743652344, 0.067411206662655, 71.8704833984375, 0.559465229511261 ],
					"3" : [ -15.594765663146973, 0.01606029458344, 19.788986206054688, 0.134026154875755, -117.46429443359375, 0.05717633664608, 27.48699951171875, 0.0 ],
					"4" : [ -12.911409378051758, -0.022175263613462, 23.514793395996094, 0.066967956721783, -53.811100006103516, 0.092134900391102, 73.280815124511719, 0.029894886538386 ],
					"5" : [ -13.865384101867676, -0.141751423478127, 22.766002655029297, 0.099533975124359, -99.774024963378906, 0.011342867277563, 27.48699951171875, 0.0 ],
					"6" : [ -23.504831314086914, -0.005164875648916, 18.145740509033203, 0.141689538955688, -78.731185913085938, 0.070903167128563, 90.512832641601562, 0.0 ],
					"7" : [ -5.80980920791626, -0.036636259406805, 75.706672668457031, 0.0131547562778, -63.814933776855469, 0.128041282296181, 83.4654541015625, 0.962337851524353 ],
					"8" : [ -25.470539093017578, -0.01490394026041, 18.327461242675781, 0.133530899882317, -156.22015380859375, 0.110258184373379, 27.48699951171875, 0.0 ],
					"9" : [ -16.855443954467773, -0.052120074629784, 24.654352188110352, 0.217480912804604, -119.044906616210938, 0.19994230568409, 77.355690002441406, 0.014000553637743 ]
				}

			}

		}
,
		"synth_normalized_descriptors" : 		{
			"descriptors_22050" : 			{
				"cols" : 8,
				"data" : 				{
					"0" : [ 0.786645641326904, -0.001726280525327, -0.941813430786133, 0.003447249159217, -0.538424835205078, 0.001670399308205, -0.867629241943359, -0.080112397670746 ],
					"1" : [ 0.354165496826172, -0.000290877814405, -1.334677391052246, 0.007925173640251, -0.992919769287109, 0.003978039696813, -1.150260009765625, -1.0 ],
					"10" : [ 0.807409801483154, -0.005513102561235, -0.977506942749023, 0.000107829947956, -0.517371063232422, 0.000083331315545, -0.653384323120117, 0.315573573112488 ],
					"11" : [ 0.841639556884766, -0.001214379258454, -0.583662109375, -0.003991600126028, -0.321836853027344, -0.00319467112422, -0.214340667724609, 0.552385449409485 ],
					"12" : [ 0.744433650970459, -0.000307744066231, -1.264117126464844, 0.005584817007184, -0.992281036376953, 0.004601819440722, 0.008668212890625, -0.596597880125046 ],
					"13" : [ 0.616961631774902, -0.000923071615398, -1.141441345214844, 0.000030771864112, -0.663598937988281, 0.008258114010096, -0.509787902832031, -0.953009530901909 ],
					"14" : [ 0.578326835632324, -0.000497918948531, -1.336198463439942, 0.006130923703313, -1.097945098876953, 0.003661470115185, -1.150260009765625, -1.0 ],
					"15" : [ 0.472010040283203, 0.000119009881746, -1.327352180480957, 0.005991184338927, -0.913191528320312, 0.003755501285195, -0.021461486816406, -0.967225506901741 ],
					"2" : [ 0.793194179534912, -0.000795167032629, -1.077507667541504, 0.004166033118963, -0.639300994873047, 0.003370560333133, -0.26259033203125, 0.118930459022522 ],
					"3" : [ 0.688104686737061, 0.000803014729172, -1.304220275878906, 0.006701307743788, -1.349285888671875, 0.002858816832304, -1.150260009765625, -1.0 ],
					"4" : [ 0.741771812438965, -0.001108763180673, -1.229704132080078, 0.003348397836089, -0.07622200012207, 0.004606745019555, -0.234383697509766, -0.940210226923227 ],
					"5" : [ 0.722692317962647, -0.007087571173906, -1.244679946899414, 0.004976698756218, -0.995480499267578, 0.000567143363878, -1.150260009765625, -1.0 ],
					"6" : [ 0.529903373718262, -0.000258243782446, -1.337085189819336, 0.007084476947784, -0.574623718261719, 0.003545158356428, 0.110256652832031, -1.0 ],
					"7" : [ 0.883803815841675, -0.00183181297034, -0.185866546630859, 0.00065773781389, -0.276298675537109, 0.006402064114809, -0.03069091796875, 0.924675703048706 ],
					"8" : [ 0.490589218139649, -0.000745197013021, -1.333450775146484, 0.006676544994116, -2.124403076171875, 0.005512909218669, -1.150260009765625, -1.0 ],
					"9" : [ 0.662891120910645, -0.002606003731489, -1.206912956237793, 0.01087404564023, -1.380898132324219, 0.009997115284204, -0.152886199951172, -0.971998892724514 ]
				}

			}

		}

	}
,
	"fits" : 	{
		"input_regressor" : 		{
			"layers" : [ 				{
					"activation" : 3,
					"biases" : [ 1.173488041138575, 1.459632099421018, -0.254719047304242 ],
					"cols" : 3,
					"rows" : 2,
					"weights" : [ [ -1.052796305962755, 0.619075408750317, 1.808256027120451 ], [ -3.153146646859752, 3.375076748292807, -0.075072702740409 ] ]
				}
, 				{
					"activation" : 3,
					"biases" : [ 0.221058509651826, -0.337913734276479, -0.525914458536881, -2.355825690502958 ],
					"cols" : 4,
					"rows" : 3,
					"weights" : [ [ -2.976899352839018, -1.595123521291193, 1.718548982831057, 1.088491268189357 ], [ -0.618166137137576, 3.379078999351345, 1.172708368739279, -2.210622730715153 ], [ -1.912184687571161, 0.695196456585637, -1.756933474799617, -0.737883600663548 ] ]
				}
, 				{
					"activation" : 3,
					"biases" : [ 1.248989147406491, 1.400823524334839, -0.278357454864939, 1.793599902121214, 0.948920358129222 ],
					"cols" : 5,
					"rows" : 4,
					"weights" : [ [ 0.783570657123903, -2.901670822241115, 0.384494486181013, 3.262741885119918, 1.227740969754665 ], [ 1.650072488915114, 1.251612236792037, -2.54864141106203, -1.152575811938849, 1.656916486715052 ], [ -1.67040805176117, 1.341454779765505, -1.573410294430829, 0.677891592729748, 1.034041248467896 ], [ -0.20695875624862, -0.173020215662512, -2.085719413607237, -1.722732700780854, -0.827136209880304 ] ]
				}
, 				{
					"activation" : 3,
					"biases" : [ -0.528213128423532, 0.153973859993242, 0.578464526725212, -1.212185945667185, 1.826600265556549, 1.13944642422715 ],
					"cols" : 6,
					"rows" : 5,
					"weights" : [ [ -1.464282878324653, -2.133811938901554, -1.148615532526422, 1.044250854499377, -1.856666299622326, -0.673408870312834 ], [ 2.470260647939326, -0.460227282884612, -3.724328722620434, -1.969542596841959, -0.372615615881672, -1.319895066851518 ], [ -2.124449937591925, -1.56187915881623, -0.8753736347849, 2.130362863155608, -0.598141784067625, 1.668711560623267 ], [ -1.515659693808671, 0.700375238236698, 1.199225281658747, -0.687147155794753, -1.708195196246638, 1.379132017786507 ], [ -0.460523283041541, -0.702152559792255, 2.069374624042604, -1.078830505546597, 0.649666322153707, 0.487606892946923 ] ]
				}
, 				{
					"activation" : 3,
					"biases" : [ 0.294113486113344, -0.289933985254726, -0.032527373540235, -3.180115972575951, -1.639598727646282, 0.271190935602129, 0.52294627768258 ],
					"cols" : 7,
					"rows" : 6,
					"weights" : [ [ -1.003465464595735, -1.568468286342211, -0.358241592360559, 2.28752116785831, -0.293899258685989, -0.448192874172592, -1.455141966951728 ], [ -2.080550976395452, 0.304797113466973, -0.29523069814039, -0.692354295111344, -0.129721395700629, -0.458028705751953, -0.345757921809852 ], [ 0.30532135950872, -1.305459358921568, -0.435173705959951, -0.294505495921926, 2.152799477644111, -0.831208008188344, 0.329875110377733 ], [ -1.582785465888145, -0.778341081684446, 0.861960121675549, -0.506681261546913, -1.833302285987553, -0.942487679649108, -0.770102803825893 ], [ -0.519449816879227, 0.835745826669916, 1.812669681094426, 1.595851407582928, -0.942353206735943, -0.057742792426928, 1.082208360989493 ], [ 3.156367773520011, -2.070705407334763, 1.727013444057799, 1.214531059407763, 0.060670246748863, 0.515864519887602, -1.652430065676517 ] ]
				}
, 				{
					"activation" : 0,
					"biases" : [ -1.541836319687225, -0.930956163470882, 0.334710131786334, -0.824445689387165, -0.573965890826034, -0.844041674562407, -0.581660199807831, 0.305347415348566 ],
					"cols" : 8,
					"rows" : 7,
					"weights" : [ [ -0.807072165644198, -1.063677558859029, 1.197636161412914, 0.548028466029664, 0.617435884484852, -0.430135494560196, -0.059908511193416, 0.149466666264105 ], [ -0.578362166372543, -1.805414638135296, 0.767805796292567, -1.059719428873015, -1.043854848786747, -0.292746298922174, -0.099127890719564, 0.225487935860828 ], [ 1.250040879016978, -1.566131586770319, 0.214795738319063, 0.979416653934525, 0.828127410677382, 0.465250217555149, 0.032681716954439, 0.27336932848575 ], [ -0.905284593016964, -1.064661776552803, 0.555047810082814, -0.507610654062732, 0.209623522480595, -0.299841886367036, 0.090349821040912, 0.805324611231212 ], [ 0.045398510792117, -1.593187496672256, 0.086458888125588, -1.357081058364806, -0.974216496568386, 0.561398009429505, 0.016193993765343, 0.656333270312111 ], [ 1.878052911266967, 1.475516169365434, -1.044527249085181, -1.15406543168732, -1.157421282361883, 0.947628610249942, 1.262314718077446, -0.161056432688629 ], [ 0.784558569342425, -1.360162234766648, 0.323210220737116, 1.846197822205421, 2.399967670681542, 0.557761233082523, 0.188710544926141, -0.225198126430483 ] ]
				}
 ]
		}
,
		"input_normalization" : 		{
			"cols" : 8,
			"data_max" : [ 1.0, 1.0, 1.0, 1.0, 1.0, 1.0, 1.0, 1.0 ],
			"data_min" : [ -1.0, -1.0, -1.0, -1.0, -1.0, -1.0, -1.0, -1.0 ],
			"max" : 1.0,
			"min" : -1.0
		}
,
		"synth_descriptors_regressor" : 		{
			"layers" : [ 				{
					"activation" : 3,
					"biases" : [ -4.150512031456648, 5.214538136406731, -1.045001184636949 ],
					"cols" : 3,
					"rows" : 8,
					"weights" : [ [ 6.76286082348114, 5.656339489943222, -2.878979341284004 ], [ 0.093753188673276, -0.415708632029671, -0.723875302385272 ], [ -1.935785848035287, 1.199229047241695, -1.146183471053844 ], [ 1.580007117245349, -0.575264991932073, 0.64340773929358 ], [ 2.607870491413577, 2.844111082337684, 4.378312773923193 ], [ -0.23398787649472, 0.957420507866245, -0.19645615383287 ], [ 0.643278540511277, 1.909010763800232, 4.566310737137717 ], [ -0.536691520265084, 4.123116431569458, -3.982920187511514 ] ]
				}
, 				{
					"activation" : 3,
					"biases" : [ 2.936250310784644, -3.002897908915838, 0.997433063726305 ],
					"cols" : 3,
					"rows" : 3,
					"weights" : [ [ 0.105692606977918, -2.21188679505623, -5.135435192074105 ], [ -3.03179058268174, 1.218043358312871, -0.555123671122074 ], [ -1.093021307201109, -2.869073042810334, 3.904571587653658 ] ]
				}
, 				{
					"activation" : 0,
					"biases" : [ -1.121974814300576, 1.073274834323007, -0.400369395858886, -1.231259883117166, -0.484114696483853, -0.759654686698506, 0.366089813584539, 0.061951865877185 ],
					"cols" : 8,
					"rows" : 3,
					"weights" : [ [ 1.144219281336408, -0.878051420646443, 0.10653229637601, 0.956068498000495, 0.2956736280498, 0.611973899204333, -0.210578889354493, -0.561036523048449 ], [ -1.555569484818703, 0.716047937464816, -1.057236135210887, -2.913877772314996, -1.012495045044326, 0.207964157410227, 0.381210957000078, -0.761081944835594 ], [ 0.590213368279903, 0.082082790472346, 0.348112358365685, 1.832921961705326, 0.615294491319939, -0.30203262657451, -0.534102634118973, 0.368403740360063 ] ]
				}
 ]
		}
,
		"synth_descriptors_normalization" : 		{
			"cols" : 8,
			"data_max" : [ 0.0, 20.0, 135.0, 20.0, 0.0, 20.0, 135.0, 1.0 ],
			"data_min" : [ -100.0, -20.0, 35.0, -20.0, -100.0, -20.0, 35.0, 0.0 ],
			"max" : 1.0,
			"min" : -1.0
		}

	}

}
