{
	"meta" : 	{
		"header" : "Regressor Analysis",
		"info" : 		{
			"title" : "Quantussy Gamepad Test (4 Corners)",
			"description" : "4 sounds, one in each corner.",
			"comment" : "Created while testing dk.regressorcreate~ with audio from output C.",
			"date_created" : "2024-02-17 / 22:25:27",
			"num_entries" : 4,
			"input_dimensions" : [ 2 ],
			"output_dimensions" : [ 9 ],
			"output_parameter_names" : [ "frequency", "chaos", "ramp", "curve", "ratea", "rateb", "ratec", "rated", "ratee" ],
			"synth_descriptors_analyzed" : 1
		}
,
		"setttings" : 		{
			"fftsettings" : "256 64 512 for the small size. medium is 512 64 1024 and when analyzing the largest window (22050) it's 2048 128 2048 (all relative to a 44.1k sample rate). this only applies to the internal parallel descriptor analysis.",
			"numframes" : "256, 4410, 22050 (relative to a 44.1k sample rate)",
			"descriptors" : "mean of loudness, deriv of loudness, mean of centroid, deriv of centroid, mean of flatness, deriv of flatness, mean of pitch, pitch confidence",
			"comment" : "8d of descriptors for the built-in parallel audio analysis of descriptor input for when being used to drive the regressor with audio input"
		}

	}
,
	"data" : 	{
		"datasets" : 		{
			"input" : 			{
				"cols" : 2,
				"data" : 				{
					"0" : [ -1.0, 1.0 ],
					"1" : [ 1.0, 1.0 ],
					"2" : [ 1.0, -1.0 ],
					"3" : [ -1.0, -1.0 ]
				}

			}
,
			"output" : 			{
				"cols" : 9,
				"data" : 				{
					"0" : [ 0.465672999620438, -0.96818619966507, -0.426227122545242, -0.447116702795029, 0.992099523544312, -0.533603072166443, 0.631349146366119, -0.250597417354584, -0.543640673160553 ],
					"1" : [ 0.194890752434731, 0.826769828796387, 0.640109062194824, 0.241877406835556, -0.139603704214096, -0.698386013507843, -0.223709970712662, 0.842853546142578, 0.674754738807678 ],
					"2" : [ -0.355584442615509, 0.720032215118408, 0.537300765514374, 0.353935241699219, -0.919731914997101, 0.792263507843018, 0.736198484897614, -0.702742397785187, 0.070623926818371 ],
					"3" : [ 0.921110987663269, 0.255156725645065, -0.461488246917725, -0.656755745410919, -0.999264895915985, -0.439895510673523, 0.687008380889893, -0.594372570514679, -0.249014481902122 ]
				}

			}

		}
,
		"synth_descriptors" : 		{
			"descriptors_256" : 			{
				"cols" : 8,
				"data" : 				{
					"0" : [ -11.660490989685059, 0.399379253387451, 48.873031616210938, -2.141190767288208, -64.689682006835938, -1.693873763084412, 27.48699951171875, 0.0 ],
					"1" : [ -11.317164421081543, 0.06717935949564, 47.803928375244141, -0.124135844409466, -58.709697723388672, 0.772177398204803, 27.48699951171875, 0.0 ],
					"2" : [ -7.000464916229248, 0.242096588015556, 63.655487060546875, -2.262488603591919, -43.661815643310547, -1.941121220588684, 27.48699951171875, 0.0 ],
					"3" : [ -1.887643814086914, -0.001039187074639, 103.592384338378906, -0.020713979378343, -26.684520721435547, -0.500616312026978, 116.063774108886719, 0.843262434005737 ]
				}

			}
,
			"descriptors_4410" : 			{
				"cols" : 8,
				"data" : 				{
					"0" : [ -2.436052083969116, 0.134307533502579, 73.744972229003906, 0.467223852872849, -99.2001953125, 0.031792689114809, 102.738380432128906, 0.940178036689758 ],
					"1" : [ -14.621027946472168, -0.067630961537361, 32.561233520507812, -0.035082746297121, -151.3507080078125, 0.2249366492033, 27.48699951171875, 0.0 ],
					"2" : [ -4.992100715637207, 0.011977373622358, 54.077781677246094, -0.198799982666969, -76.388526916503906, -0.110960707068443, 56.012599945068359, 0.215603709220886 ],
					"3" : [ -3.360250473022461, -0.067137151956558, 63.598827362060547, -0.660212934017181, -74.276405334472656, -0.164764001965523, 58.243297576904297, 0.26496946811676 ]
				}

			}
,
			"descriptors_22050" : 			{
				"cols" : 8,
				"data" : 				{
					"0" : [ -1.522296786308289, -0.013918208889663, 78.132225036621094, 0.242865413427353, -114.158599853515625, 0.115593805909157, 90.675567626953125, 0.946888029575348 ],
					"1" : [ -12.345014572143555, -0.000584199442528, 21.056377410888672, 0.126361340284348, -142.305633544921875, 0.104509718716145, 27.48699951171875, 0.0 ],
					"2" : [ -5.564973831176758, -0.026548702269793, 43.021358489990234, -0.034353662282228, -95.82147216796875, 0.006480887066573, 47.987064361572266, 0.722526729106903 ],
					"3" : [ -1.619359731674194, -0.029675519093871, 75.043739318847656, 0.009642520919442, -56.784126281738281, 0.04004043713212, 87.744819641113281, 0.725518226623535 ]
				}

			}

		}
,
		"synth_normalized_descriptors" : 		{
			"descriptors_22050" : 			{
				"cols" : 8,
				"data" : 				{
					"0" : [ 0.969554064273834, -0.000695910444483, -0.137355499267578, 0.012143270671368, -1.283171997070312, 0.005779690295458, 0.113511352539063, 0.893776059150696 ],
					"1" : [ 0.753099708557129, -0.000029209972126, -1.278872451782227, 0.006318067014217, -1.846112670898437, 0.005225485935807, -1.150260009765625, -1.0 ],
					"2" : [ 0.888700523376465, -0.00132743511349, -0.839572830200195, -0.001717683114111, -0.916429443359375, 0.000324044353329, -0.740258712768555, 0.445053458213806 ],
					"3" : [ 0.967612805366516, -0.001483775954694, -0.199125213623047, 0.000482126045972, -0.135682525634766, 0.002002021856606, 0.054896392822266, 0.45103645324707 ]
				}

			}

		}

	}
,
	"fits" : 	{
		"input_regressor" : 		{
			"layers" : [ 				{
					"activation" : 3,
					"biases" : [ -0.362786499655114, 0.349075117418495, 0.16022012909597 ],
					"cols" : 3,
					"rows" : 2,
					"weights" : [ [ -0.63794041576545, -0.62869296722556, 0.84723834702312 ], [ 0.565238734165912, -0.793928459629516, 0.529771304626782 ] ]
				}
, 				{
					"activation" : 3,
					"biases" : [ 0.398476476789253, -0.246698891611374, 0.094598355492984, 0.144794504122642 ],
					"cols" : 4,
					"rows" : 3,
					"weights" : [ [ 0.108382116402299, 0.082121015013506, -0.559211844072324, -1.067406633379266 ], [ 1.176348445960666, 0.431990605658931, -0.449736535955882, -0.091645230731856 ], [ -0.346823470370546, -0.746836823824519, 0.721710019082933, 0.140840147749157 ] ]
				}
, 				{
					"activation" : 3,
					"biases" : [ 0.047984540583394, 0.088225980345219, -0.096458701026732, -0.040894134904792, -0.06524396867327 ],
					"cols" : 5,
					"rows" : 4,
					"weights" : [ [ 0.711783221375047, -0.080210369789174, 0.893199826558677, -0.372958620008564, 0.556639990810183 ], [ -0.223247231126364, 0.109466639353764, 0.326893426602771, 0.646047690236609, -0.628095037597487 ], [ 0.09965418228519, -0.614255518485518, -0.278598049438754, 0.174155400185985, 0.83113517322944 ], [ -0.793901743996514, -0.205727856399722, 0.735188733712622, 0.851941006785953, -0.650656156548962 ] ]
				}
, 				{
					"activation" : 3,
					"biases" : [ -0.009060020359452, 0.248908105718387, -0.026776374377357, -0.080358672873089, 0.071278872184226, -0.0465975706537 ],
					"cols" : 6,
					"rows" : 5,
					"weights" : [ [ -0.475608433905939, -0.3976632418835, 0.855825913945955, -0.661737775526774, 0.499270398159716, -0.828043655952869 ], [ 0.055529551475081, 0.673437973048734, 0.124504265062386, 0.268298673328684, -0.742728669959699, -0.68712059377337 ], [ -0.116803140089111, -0.911278775643895, -0.153294580801627, 0.727111534837765, -0.68962653838669, -0.050098874380956 ], [ -0.180452769385079, 0.422711756029723, -0.155410464307677, 0.476365996636744, -0.801293299989749, 0.654135776671213 ], [ -0.64744597062098, -0.765656401102547, -0.131353362762708, 0.366935914693851, 0.362673522243671, 0.402382803821925 ] ]
				}
, 				{
					"activation" : 3,
					"biases" : [ 0.103216588248504, 0.060980069347593, 0.099865018179561, 0.057599405216456, 0.064486576494103, -0.196793873543006, 0.032217410158461 ],
					"cols" : 7,
					"rows" : 6,
					"weights" : [ [ 0.719735897109086, -0.428441158865811, 0.256203722179955, 0.039916530918634, -0.594485032968537, 0.232259203587838, 0.145686856790169 ], [ -0.35932763829436, 0.818323843120275, 0.850445429174736, 0.493747977071576, 0.783238578326336, -0.030933194776321, 0.217219213383638 ], [ -0.513808157910674, 0.499964371111216, -0.054928235283069, -0.465354198050696, 0.730846947285984, -0.491658055469334, -0.5618161191438 ], [ 0.014171079573984, -0.397727668932292, -0.023985075822918, 0.489478569773588, -0.751799374049773, 0.012748875191517, -0.306412903463158 ], [ 0.197574249592337, -0.412123644762839, -0.394672865870211, -0.3415702843246, 0.491460960030854, 0.423471562447894, 0.599001626282407 ], [ -0.379868493062047, 0.432397660780595, -0.259072797273576, 0.545696203018677, 0.02179565443917, 0.564083880264024, -0.323028724395774 ] ]
				}
, 				{
					"activation" : 0,
					"biases" : [ 0.284107335686322, 0.276525660220637, 0.075199649595452, -0.071848788059894, -0.258010632256672, -0.245715828024555, 0.365151385020637, -0.112081826787297, 0.00871004575306 ],
					"cols" : 9,
					"rows" : 7,
					"weights" : [ [ 0.409727847795397, -0.039397238360959, 0.302145416186585, 0.152104898752438, -0.016401957561387, -0.31186680053066, 0.091480478340664, 0.493730106423625, -0.261121024339728 ], [ 0.273742495095028, 0.082542481523069, 0.456772647850231, -0.832571445513418, -0.482185841760948, 0.161900184242531, -0.17922499042952, -0.008949788056666, 0.4613896237803 ], [ 0.551727800482732, 0.243517193587349, -0.626959508900063, 0.060374130665783, -0.112477929953591, -0.925533324258482, -0.274712573288464, 0.399031067217183, -0.16497774235478 ], [ -0.026913646165168, 0.389822178956934, 0.37309834691145, 0.14941884788095, -0.342341538122718, 0.022277807543341, -0.089456415700287, 0.265694022349348, 0.493489027937103 ], [ 0.468150780965193, -0.75313210589486, -0.135747951207277, -0.118972299138031, 0.919341131381046, -0.468831001500674, -0.353259888851944, 0.571647577337239, 0.081798938215492 ], [ -0.264997546890072, 0.463059132892945, 0.38887621304227, 0.643748617045144, 0.108605544690911, -0.01219678999638, -0.485106502625456, 0.59300104162164, 0.203308636139053 ], [ -0.568599344135759, 0.29392429277824, 0.126283691832599, 0.347164872193159, 0.556023480355722, -0.519672454239366, -0.004790765734966, 0.41299029074718, 0.045674241625483 ] ]
				}
 ]
		}
,
		"input_normalization" : 		{
			"cols" : 9,
			"data_max" : [ 1.0, 1.0, 1.0, 1.0, 1.0, 1.0, 1.0, 1.0, 1.0 ],
			"data_min" : [ -1.0, -1.0, -1.0, -1.0, -1.0, -1.0, -1.0, -1.0, -1.0 ],
			"max" : 1.0,
			"min" : -1.0
		}
,
		"synth_descriptors_regressor" : 		{
			"layers" : [ 				{
					"activation" : 3,
					"biases" : [ 0.584853315686259, 0.226759681149147, 0.034248208887443 ],
					"cols" : 3,
					"rows" : 8,
					"weights" : [ [ 0.065403530672884, 0.021315767609071, 0.529710788088749 ], [ -0.428597423587032, -0.465580839083521, -0.16195016042171 ], [ 0.045126862260663, 0.009690123712081, 0.490129695427869 ], [ 0.564125626598802, 0.234248206061634, -0.548278440767119 ], [ 0.95222743121922, 0.48729043897254, 0.567410648537839 ], [ 0.112963225931944, 0.56740181873344, 0.545583405599833 ], [ -0.749800177464744, -0.670081500201901, 0.889820345751804 ], [ -0.387950106668726, 1.048319527960726, 0.757915573558481 ] ]
				}
, 				{
					"activation" : 3,
					"biases" : [ -0.148487186031115, -0.233016458911332, -0.133197264833852 ],
					"cols" : 3,
					"rows" : 3,
					"weights" : [ [ -1.385770438478779, 0.954746756321035, -0.245133877458182 ], [ 0.040604638130311, 0.949242087095472, -1.238721864879019 ], [ -0.60462481432732, -1.146900523593296, -0.307736934409561 ] ]
				}
, 				{
					"activation" : 0,
					"biases" : [ 0.442902283427745, 0.373184267095613, 0.120056775854318, -0.145905420115316, -0.295221486029192, -0.51330127312056, 0.247413328648134, 0.135086046708223, 0.164731647129432 ],
					"cols" : 9,
					"rows" : 3,
					"weights" : [ [ -0.730796402355359, -0.613185257013746, 0.31048396683095, 0.446580200156045, 1.131343751502578, 0.502959065266159, 0.101643866754333, -0.018665575470663, -0.157456503838951 ], [ -0.701008670648744, 0.881946333176721, 0.689723871178101, 0.620818373963353, -0.851386449939522, 0.925320160923075, 0.067303004808483, -0.244081614654473, 0.354900136559563 ], [ 0.216260886329601, 0.51320064574498, 0.298801666823147, 0.101033583887541, 0.044150896141952, -0.752972870827053, -0.660963182086548, 0.989345601654013, 0.586610606334221 ] ]
				}
 ]
		}
,
		"synth_descriptors_normalization" : 		{
			"cols" : 8,
			"data_max" : [ 0.0, 20.0, 135.0, 20.0, 0.0, 20.0, 135.0, 1.0 ],
			"data_min" : [ -100.0, -20.0, 35.0, -20.0, -100.0, -20.0, 35.0, 0.0 ],
			"max" : 1.0,
			"min" : -1.0
		}

	}

}
