{
	"meta" : 	{
		"header" : "Regressor Analysis",
		"info" : 		{
			"title" : "Rungler Gamepad Test (4x4 grid)",
			"description" : "16 sounds, spread across -1. to 1. range",
			"comment" : "Created while testing dk.regressorcreate~ with audio from output C.",
			"date_created" : "2024-02-20 / 22:18:02",
			"num_entries" : 16,
			"input_dimensions" : [ 2 ],
			"output_dimensions" : [ 12 ],
			"output_parameter_names" : [ "frequencya", "frequencyb", "runglera", "runglerb", "pwma", "pwmb", "rampa", "rampb", "synca", "syncb", "runglerinputa", "runglerinputb" ],
			"synth_descriptors_analyzed" : 1
		}
,
		"setttings" : 		{
			"fftsettings" : "256 64 512 for the small size. medium is 512 64 1024 and when analyzing the largest window (22050) it's 2048 128 2048 (all relative to a 44.1k sample rate). this only applies to the internal parallel descriptor analysis.",
			"numframes" : "256, 4410, 22050 (relative to a 44.1k sample rate)",
			"descriptors" : "mean of loudness, deriv of loudness, mean of centroid, deriv of centroid, mean of flatness, deriv of flatness, mean of pitch, pitch confidence",
			"comment" : "8d of descriptors for the built-in parallel audio analysis of descriptor input for when being used to drive the regressor with audio input"
		}

	}
,
	"data" : 	{
		"datasets" : 		{
			"input" : 			{
				"cols" : 2,
				"data" : 				{
					"0" : [ -1.0, -1.0 ],
					"1" : [ -0.338582664728165, -1.0 ],
					"10" : [ 0.338582664728165, 0.338582664728165 ],
					"11" : [ 1.0, 0.338582664728165 ],
					"12" : [ -1.0, 1.0 ],
					"13" : [ -0.338582664728165, 1.0 ],
					"14" : [ 0.338582664728165, 1.0 ],
					"15" : [ 1.0, 1.0 ],
					"2" : [ 0.338582664728165, -1.0 ],
					"3" : [ 1.0, -1.0 ],
					"4" : [ -1.0, -0.338582664728165 ],
					"5" : [ -0.338582664728165, -0.338582664728165 ],
					"6" : [ 0.338582664728165, -0.338582664728165 ],
					"7" : [ 1.0, -0.338582664728165 ],
					"8" : [ -1.0, 0.338582664728165 ],
					"9" : [ -0.338582664728165, 0.338582664728165 ]
				}

			}
,
			"output" : 			{
				"cols" : 12,
				"data" : 				{
					"0" : [ 0.378687649965286, -0.487559944391251, -0.45941361784935, 0.600303292274475, 0.563023805618286, -0.01625463925302, -0.954349637031555, 0.80787193775177, 1.0, -1.0, -1.0, 1.0 ],
					"1" : [ -0.250662565231323, -0.428964346647263, -0.967275679111481, 0.048168197274208, -0.573477745056152, -0.04366148263216, -0.897856056690216, -0.285152733325958, 1.0, 1.0, 1.0, -1.0 ],
					"10" : [ -0.427170783281326, 0.193562433123589, 0.909936249256134, 0.399160295724869, 0.082894422113895, 0.610575973987579, 0.142012938857079, -0.442728459835052, -1.0, -1.0, -1.0, 1.0 ],
					"11" : [ 0.190379410982132, -0.52345734834671, -0.003942183684558, 0.743847250938416, 0.76181572675705, -0.530942916870117, -0.008713776245713, -0.358998715877533, -1.0, 1.0, -1.0, -1.0 ],
					"12" : [ -0.64101231098175, 0.87279748916626, 0.284939110279083, -0.048531167209148, -0.178279101848602, 0.452481925487518, 0.499149143695831, 0.176819562911987, -1.0, -1.0, 1.0, -1.0 ],
					"13" : [ 0.49567899107933, 0.874590873718262, -0.158960551023483, 0.152147367596626, 0.445664167404175, 0.150021120905876, -0.414197325706482, 0.7543044090271, -1.0, -1.0, 1.0, 1.0 ],
					"14" : [ 0.153853535652161, 0.667226910591125, -0.119475685060024, -0.992729783058167, -0.942774057388306, -0.857349693775177, -0.009899341501296, -0.000693157257047, 1.0, -1.0, 1.0, 1.0 ],
					"15" : [ 0.339372336864471, -0.506601095199585, -0.865602791309357, 0.248540461063385, 0.919370710849762, -0.01628253236413, 0.103803500533104, 0.094813607633114, 1.0, -1.0, 1.0, 1.0 ],
					"2" : [ -0.580274820327759, 0.38125091791153, 0.842836260795593, -0.8326016664505, 0.028950534760952, -0.500560820102692, -0.465646266937256, -0.200251802802086, 1.0, 1.0, 1.0, -1.0 ],
					"3" : [ 0.415725290775299, -0.334896326065063, -0.854388117790222, -0.33537957072258, 0.08040676265955, 0.273123174905777, 0.321126461029053, 0.480374574661255, -1.0, -1.0, 1.0, -1.0 ],
					"4" : [ -0.283999115228653, 0.591839373111725, 0.80755603313446, 0.661139786243439, -0.73346883058548, 0.79620897769928, 0.360136836767197, 0.367754995822906, 1.0, -1.0, 1.0, 1.0 ],
					"5" : [ 0.504883587360382, -0.520764708518982, -0.057449717074633, 0.978161036968231, 0.30805766582489, -0.503524601459503, -0.027424763888121, 0.296261101961136, 1.0, 1.0, 1.0, 1.0 ],
					"6" : [ -0.629517257213593, -0.876862287521362, 0.988183856010437, -0.188683554530144, -0.345664173364639, -0.485976457595825, -0.512755692005157, -0.354241341352463, -1.0, -1.0, 1.0, 1.0 ],
					"7" : [ 0.201288908720016, 0.488799154758453, 0.130098015069962, -0.818668067455292, -0.86958247423172, 0.209847003221512, -0.552474737167358, -0.484373897314072, -1.0, -1.0, 1.0, 1.0 ],
					"8" : [ -0.510547459125519, -0.001352159888484, -0.440078109502792, 0.217312186956406, 0.229295507073402, -0.436516433954239, 0.09820619225502, -0.58317095041275, 1.0, -1.0, -1.0, -1.0 ],
					"9" : [ 0.424339562654495, -0.513798534870148, -0.991901874542236, 0.750772953033447, 0.955329835414886, -0.985154986381531, 0.826298117637634, 0.903821289539337, 1.0, -1.0, -1.0, -1.0 ]
				}

			}

		}
,
		"synth_descriptors" : 		{
			"descriptors_256" : 			{
				"cols" : 8,
				"data" : 				{
					"0" : [ -8.032186508178711, 0.084880352020264, 104.918853759765625, 0.337221175432205, -11.914309501647949, 0.090275086462498, 105.2869873046875, 0.283660113811493 ],
					"1" : [ -22.421955108642578, 1.601167678833008, 48.138393402099609, 0.6269411444664, -62.775615692138672, 2.456556797027588, 27.48699951171875, 0.0 ],
					"10" : [ -19.270818710327148, 0.53532886505127, 48.538131713867188, 0.200384438037872, -60.046215057373047, 3.655474424362183, 27.48699951171875, 0.0 ],
					"11" : [ -9.703805923461914, -0.094274200499058, 70.5743408203125, 4.311788558959961, -20.037271499633789, 2.218319892883301, 109.483421325683594, 0.0 ],
					"12" : [ -10.594959259033203, 0.218476459383965, 77.572494506835938, 2.608175277709961, -41.809017181396484, 2.017053365707397, 78.8409423828125, 0.555306196212769 ],
					"13" : [ -9.119499206542969, -0.016315937042236, 109.871711730957031, -1.092174768447876, -7.936791896820068, 0.545520603656769, 90.129112243652344, 0.286031812429428 ],
					"14" : [ -8.956944465637207, 0.941129982471466, 88.798477172851562, 7.460590839385986, -24.979793548583984, 2.442055463790894, 110.413497924804688, 0.238442733883858 ],
					"15" : [ -11.160183906555176, 0.018374124541879, 74.228202819824219, -0.007374848704785, -61.929290771484375, -1.023674130439758, 76.4940185546875, 0.567419588565826 ],
					"2" : [ -27.516450881958008, -0.265037208795547, 48.503501892089844, -0.100977912545204, -60.780235290527344, 2.070487499237061, 27.48699951171875, 0.0 ],
					"3" : [ -10.148286819458008, 0.161525890231133, 85.276473999023438, 2.022670745849609, -36.203201293945312, 2.009819507598877, 85.771591186523438, 0.527499794960022 ],
					"4" : [ -20.413047790527344, -2.336678266525269, 49.920558929443359, 0.795612931251526, -66.320274353027344, -1.18544340133667, 27.48699951171875, 0.0 ],
					"5" : [ -12.740257263183594, 0.077469669282436, 114.311676025390625, 2.203230857849121, -4.858285427093506, -0.157222285866737, 86.703453063964844, 0.132730662822723 ],
					"6" : [ -7.402582168579102, -0.001869996427558, 122.266181945800781, -0.138423129916191, -36.701602935791016, -0.269934296607971, 103.195030212402344, 0.957814872264862 ],
					"7" : [ -11.718378067016602, -1.22553539276123, 71.956161499023438, -3.363014698028564, -20.360141754150391, -1.589538335800171, 68.510208129882812, 0.035003930330276 ],
					"8" : [ -14.417778015136719, 0.195395469665527, 48.093490600585938, 0.030161458998919, -55.821941375732422, 1.23296332359314, 27.48699951171875, 0.0 ],
					"9" : [ -9.37476634979248, 0.240064784884453, 87.643653869628906, 1.024590134620667, -32.387615203857422, 0.856937348842621, 82.902725219726562, 0.624059557914734 ]
				}

			}
,
			"descriptors_4410" : 			{
				"cols" : 8,
				"data" : 				{
					"0" : [ -6.155111789703369, -0.009547398425639, 99.657783508300781, -0.007891756482422, -16.383647918701172, 0.002526328200474, 79.015701293945312, 0.32271334528923 ],
					"1" : [ -16.447214126586914, 0.160014167428017, 33.90899658203125, 0.098721794784069, -141.662033081054688, 0.371230989694595, 27.48699951171875, 0.0 ],
					"10" : [ -22.645847320556641, 0.025449829176068, 32.124286651611328, 0.033497177064419, -165.088394165039062, 0.105518706142902, 27.48699951171875, 0.0 ],
					"11" : [ -8.346115112304688, -0.011453565210104, 66.784812927246094, -0.007894079200923, -21.056455612182617, 0.020842598751187, 56.046043395996094, 0.277917742729187 ],
					"12" : [ -8.438344955444336, 0.003638992318884, 71.467391967773438, -0.125818237662315, -35.316471099853516, 0.104794263839722, 57.196281433105469, 0.289961397647858 ],
					"13" : [ -14.842977523803711, -0.169184118509293, 126.226799011230469, 0.104512147605419, -33.881969451904297, -0.055639628320932, 100.791633605957031, 0.91622120141983 ],
					"14" : [ -18.410816192626953, 0.014142888598144, 61.256362915039062, 0.014360782690346, -104.961196899414062, 0.256675839424133, 65.973846435546875, 0.0 ],
					"15" : [ -10.93370246887207, 0.003643468255177, 64.982872009277344, 0.078493729233742, -79.815345764160156, 0.513966917991638, 77.362342834472656, 0.801675915718079 ],
					"2" : [ -31.349788665771484, 0.17404679954052, 32.311904907226562, 0.097663514316082, -169.3857421875, 0.590803623199463, 27.48699951171875, 0.0 ],
					"3" : [ -13.287143707275391, 0.001708043389954, 71.267280578613281, 0.211159631609917, -71.652580261230469, 0.609287798404694, 84.6016845703125, 0.710757374763489 ],
					"4" : [ -11.73170280456543, -0.087197497487068, 37.141231536865234, -0.050367958843708, -80.847114562988281, 0.166696056723595, 27.48699951171875, 0.0 ],
					"5" : [ -10.175985336303711, -0.014896621927619, 111.540016174316406, 0.283843517303467, -7.267841815948486, -0.058021441102028, 78.781379699707031, 0.213491752743721 ],
					"6" : [ -6.807216644287109, -0.014721679501235, 128.215545654296875, 0.158407241106033, -68.24591064453125, -0.279752254486084, 103.196159362792969, 0.97082930803299 ],
					"7" : [ -14.806703567504883, -0.070318676531315, 46.166896820068359, -0.528634667396545, -91.915916442871094, 0.051273740828037, 27.48699951171875, 0.0 ],
					"8" : [ -12.822997093200684, 0.036111067980528, 34.141361236572266, 0.016080820932984, -119.225234985351562, 0.058146171271801, 27.48699951171875, 0.0 ],
					"9" : [ -33.081554412841797, -0.450961709022522, 75.62615966796875, 0.130376473069191, -39.871463775634766, 0.233240082859993, 73.143913269042969, 0.544433236122131 ]
				}

			}
,
			"descriptors_22050" : 			{
				"cols" : 8,
				"data" : 				{
					"0" : [ -6.075665473937988, -0.035857308655977, 100.66357421875, -0.028410090133548, -15.082470893859863, 0.009348348714411, 94.328125, 0.275960177183151 ],
					"1" : [ -14.432153701782227, -0.069891192018986, 25.242029190063477, 0.094577185809612, -113.252799987792969, 0.04102510586381, 27.48699951171875, 0.0 ],
					"10" : [ -19.855342864990234, -0.005655105225742, 17.989435195922852, 0.126708269119263, -166.437118530273438, 0.11083722859621, 27.48699951171875, 0.0 ],
					"11" : [ -8.396158218383789, -0.024298418313265, 67.659027099609375, 0.022776016965508, -55.606678009033203, -0.002476762514561, 56.040847778320312, 0.929168999195099 ],
					"12" : [ -8.376180648803711, -0.021377624943852, 77.998611450195312, 0.076737433671951, -59.494277954101562, 0.113983236253262, 54.309471130371094, 0.888531804084778 ],
					"13" : [ -9.460765838623047, -0.013678841292858, 114.9678955078125, 0.014302868396044, -15.551069259643555, 0.012419718317688, 79.039970397949219, 0.150088578462601 ],
					"14" : [ -15.305624008178711, -0.019766526296735, 56.616252899169922, 0.32898873090744, -115.753913879394531, 0.178415864706039, 46.424251556396484, 0.110701240599155 ],
					"15" : [ -9.309338569641113, -0.019775431603193, 73.450248718261719, 0.013277406804264, -65.430458068847656, 0.167036458849907, 77.672172546386719, 0.848978817462921 ],
					"2" : [ -22.507606506347656, 0.038414910435677, 18.700124740600586, 0.144530296325684, -184.945632934570312, 0.471020966768265, 27.48699951171875, 0.0 ],
					"3" : [ -9.481380462646484, 0.004498119466007, 81.429763793945312, 0.061639484018087, -51.254898071289062, 0.113384641706944, 85.4571533203125, 0.871851563453674 ],
					"4" : [ -11.254144668579102, 0.016739044338465, 40.817462921142578, 0.122683346271515, -39.263572692871094, 0.047444626688957, 34.839092254638672, 0.393605381250381 ],
					"5" : [ -10.023207664489746, -0.027766181156039, 110.315391540527344, 0.040025983005762, -7.658670902252197, -0.004257762804627, 60.808017730712891, 0.128569856286049 ],
					"6" : [ -17.682315826416016, -0.064475819468498, 65.568191528320312, -0.367819577455521, -135.183425903320312, 0.052893444895744, 27.48699951171875, 0.0 ],
					"7" : [ -11.323397636413574, 0.003057683818042, 49.529254913330078, 0.035391766577959, -45.121204376220703, -0.025247229263186, 63.089649200439453, 0.212457329034805 ],
					"8" : [ -17.051164627075195, 0.005847451742738, 23.751562118530273, 0.132634103298187, -145.477005004882812, 0.060767702758312, 27.48699951171875, 0.0 ],
					"9" : [ -33.289325714111328, -0.00348460348323, 65.495010375976562, 0.019852036610246, -41.861038208007812, -0.035904176533222, 73.144302368164062, 0.683531284332275 ]
				}

			}

		}
,
		"synth_normalized_descriptors" : 		{
			"descriptors_22050" : 			{
				"cols" : 8,
				"data" : 				{
					"0" : [ 0.87848669052124, -0.001792865432799, 0.313271484375, -0.001420504506677, 0.698350582122803, 0.000467417435721, 0.1865625, -0.448079645633698 ],
					"1" : [ 0.711356925964356, -0.003494559600949, -1.19515941619873, 0.004728859290481, -1.265055999755859, 0.00205125529319, -1.150260009765625, -1.0 ],
					"10" : [ 0.602893142700195, -0.000282755261287, -1.340211296081543, 0.006335413455963, -2.328742370605469, 0.005541861429811, -1.150260009765625, -1.0 ],
					"11" : [ 0.832076835632324, -0.001214920915663, -0.346819458007813, 0.001138800848275, -0.112133560180664, -0.000123838125728, -0.579183044433594, 0.858337998390198 ],
					"12" : [ 0.832476387023926, -0.001068881247193, -0.140027770996094, 0.003836871683597, -0.189885559082031, 0.005699161812663, -0.613810577392578, 0.777063608169556 ],
					"13" : [ 0.810784683227539, -0.000683942064643, 0.59935791015625, 0.000715143419802, 0.688978614807129, 0.000620985915884, -0.119200592041016, -0.699822843074799 ],
					"14" : [ 0.693887519836426, -0.000988326314837, -0.567674942016602, 0.016449436545372, -1.315078277587891, 0.008920793235302, -0.77151496887207, -0.778597518801689 ],
					"15" : [ 0.813813228607178, -0.00098877158016, -0.230995025634766, 0.000663870340213, -0.308609161376953, 0.008351822942495, -0.146556549072266, 0.697957634925842 ],
					"2" : [ 0.549847869873047, 0.001920745521784, -1.325997505187988, 0.007226514816284, -2.698912658691406, 0.023551048338413, -1.150260009765625, -1.0 ],
					"3" : [ 0.81037239074707, 0.0002249059733, -0.071404724121094, 0.003081974200904, -0.025097961425781, 0.005669232085347, 0.00914306640625, 0.743703126907349 ],
					"4" : [ 0.774917106628418, 0.000836952216923, -0.883650741577148, 0.006134167313576, 0.214728546142578, 0.002372231334448, -1.003218154907227, -0.212789237499237 ],
					"5" : [ 0.799535846710205, -0.001388309057802, 0.506307830810547, 0.002001299150288, 0.846826581954956, -0.000212888140231, -0.483839645385742, -0.742860287427902 ],
					"6" : [ 0.64635368347168, -0.003223790973425, -0.388636169433594, -0.018390978872776, -1.703668518066406, 0.002644672244787, -1.150260009765625, -1.0 ],
					"7" : [ 0.773532047271728, 0.000152884190902, -0.709414901733398, 0.001769588328898, 0.097575912475586, -0.001262361463159, -0.438207015991211, -0.575085341930389 ],
					"8" : [ 0.658976707458496, 0.000292372587137, -1.224968757629395, 0.006631705164909, -1.909540100097656, 0.003038385137916, -1.150260009765625, -1.0 ],
					"9" : [ 0.334213485717773, -0.000174230174162, -0.390099792480469, 0.000992601830512, 0.162779235839844, -0.001795208826661, -0.237113952636719, 0.367062568664551 ]
				}

			}

		}

	}
,
	"fits" : 	{
		"input_regressor" : 		{
			"layers" : [ 				{
					"activation" : 3,
					"biases" : [ 0.109391800824762, -0.294706576625057, -0.311822892107454 ],
					"cols" : 3,
					"rows" : 2,
					"weights" : [ [ -0.304062909991404, 0.89720931659389, -2.226215385572405 ], [ 1.085868809310566, 1.398277854908228, 1.23662444875674 ] ]
				}
, 				{
					"activation" : 3,
					"biases" : [ -0.66016271488997, -1.545331569791988, -0.593602805910473, -1.27279032517028, 1.402620986665577 ],
					"cols" : 5,
					"rows" : 3,
					"weights" : [ [ -1.586889606155681, -1.879159066963208, 1.403286000856324, -0.488964656750953, -0.59928559874884 ], [ -2.727042301767468, 1.087390051725742, 1.512831079734201, -1.303019149411101, 0.109672391230349 ], [ 2.701078143642267, -1.590495897762772, 0.692021201733876, 0.640777161087632, -2.193642427483549 ] ]
				}
, 				{
					"activation" : 3,
					"biases" : [ 1.59076674889432, -0.125579198881392, -1.062984849987834, -0.170071973723831, -0.013920458823085, -0.275402870780191, 1.114054509837644 ],
					"cols" : 7,
					"rows" : 5,
					"weights" : [ [ -1.969135955663273, 1.734975460781142, -2.033663901080399, -0.30256014400237, 1.533878844387012, -0.600572463507855, 0.829446640123474 ], [ -0.248291460488612, 0.992285069454471, -2.05625954024497, 1.6571874291748, -1.149639423398032, 0.179445428126084, 0.660565540021498 ], [ 0.363160652893485, 0.518937520516467, -1.761298401447928, -1.932327270518127, 0.183039189455973, -1.919500745884546, -0.432589750849019 ], [ -1.114086331578235, -0.832275918744188, 1.176404314200464, -0.494628262755856, 0.704917948153109, 1.201979805946999, 0.550655691133572 ], [ -1.076031253592152, 1.931224874706589, -0.352862795112975, 1.377893816794345, 1.217431579905973, 0.215713580849007, -1.657603625362049 ] ]
				}
, 				{
					"activation" : 3,
					"biases" : [ -0.311107117131466, -0.699097900152188, 0.500847870600585, 0.114481719676487, 1.057419013410076, 0.25872333756453, -0.65427822634549, -0.069299668225334 ],
					"cols" : 8,
					"rows" : 7,
					"weights" : [ [ -0.541643728522098, -1.426274438585196, 0.490359747486931, 0.154601785178326, 0.36745760983627, 0.361240507647131, -0.357756331162817, 1.987604712023799 ], [ -0.18790413797282, -0.924586846176473, 0.757522953087288, 1.33934721426465, 1.456114025086863, -1.173173374590473, 0.844230184250794, -0.906450587434286 ], [ 0.996151584988282, 0.036445612127425, 1.372985484626593, 0.353377169509903, 0.227644176962157, 2.192754518198501, -0.276708184341901, 0.907287715468503 ], [ 0.041816200121137, -0.112633943156506, -1.701374743521396, -0.407182999422866, 1.74467432352678, -0.502419786292007, 0.327371233333687, 1.706495071024354 ], [ 0.255262756051549, 0.94534178051583, -0.02336694232452, 1.177055488681194, 0.018765478220974, -0.85413732689055, -1.095226659108136, -0.618807181077851 ], [ 1.815682147731497, -0.088406405075183, -0.311303855244525, -0.963827808305703, 0.394229859811973, 1.351805461039118, 0.058480748348633, 0.114513792420131 ], [ -0.197479133846938, 0.964197242684394, -0.496192730966272, -1.207507027156336, -0.257296137143711, -1.269653367716229, -0.910386487555684, 1.568240517378439 ] ]
				}
, 				{
					"activation" : 3,
					"biases" : [ 0.205256777014206, 0.944426416562598, 0.192555250752068, 0.107835790312488, 0.764687850452225, -0.869925791852567, -0.49578372696566, -0.686775958541641, 0.274773139844746, 0.421801914310515 ],
					"cols" : 10,
					"rows" : 8,
					"weights" : [ [ 0.150472617559301, 0.21091324708279, -0.530521501628556, 1.121971767132906, -0.621469991167915, 1.677335816003872, -0.851068432111998, -0.027902611233226, -1.258827244538127, 0.256828973256161 ], [ 0.31717484207187, -1.625059867525035, -0.219174029507011, 0.795787915333827, -0.527979018879445, -1.557049051765254, -1.63198829033414, -0.391452445037685, 0.195011333765015, -0.680248583259218 ], [ 1.587807873767493, 1.032714691616023, -0.321618100814892, 1.118195760555974, 0.636107414131237, 0.370775166834969, -0.372331199824176, -0.81151732448197, -0.682719128991705, -0.40525134842971 ], [ -0.718614022458296, 0.937456209725577, -1.19345143553411, 0.557191744326807, -0.404289855960621, -0.131141007552024, -0.392348673439726, 1.055924122843738, 0.426610614364896, -1.130372255945625 ], [ 1.216264948627656, 0.012224804759383, 1.576359304114342, 1.143920836091348, -0.487770978083778, -0.282754553882292, -0.588675404714225, -0.600100560091924, -0.349151926733272, -0.812705514396061 ], [ -0.121832526419361, -0.105632523752766, -1.005167473037871, -1.542203047227046, 0.173041136940197, -0.151311191348621, 0.546704662780024, -0.818675874453269, -0.369108887105817, -0.541175074667284 ], [ 0.162771961846579, 0.329472991931569, 0.59827458964527, 0.29564819628274, -2.216639975028109, 0.907916480097588, -0.348041211622246, -0.066071425155428, 0.710299926082026, 0.387269250219431 ], [ 0.010589541361868, 0.613217304127217, 1.786741022258103, -0.806600003481809, 1.922225470509748, -1.275220439379551, 1.978990491813864, -0.01912993336464, 0.484152385960766, -0.939808812258499 ] ]
				}
, 				{
					"activation" : 0,
					"biases" : [ -0.347156331972165, -0.239674599087421, -0.353921171646163, -0.486596641314425, -1.163082255357544, -0.253606186570841, -0.38399522793898, -0.711288016104328, 0.748099722725965, -0.239919900741741, 1.008546054412119, -0.086550442004222 ],
					"cols" : 12,
					"rows" : 10,
					"weights" : [ [ 0.091392616377252, -0.811120952542045, -0.231188802884558, 1.465198327304698, 0.464774065324936, 0.82081725114456, 1.398751605532215, 0.355925123357622, -0.408786518832677, -0.93603376777589, 0.496302642615816, 0.410480293048334 ], [ 0.433535231132521, 0.716158106820261, 1.069704563624061, 0.408996777471915, 1.298796528076855, -0.303232352414258, 0.227861402115032, 0.864161996585308, -0.389951432586766, 0.523159122779764, -0.255906332846332, 0.869081439542364 ], [ -1.035609783877986, 0.35652864029525, 1.390637216808939, -0.198745302780412, -0.270414500477881, 0.263413428738657, -0.067733564621107, -0.69979208428951, -0.383177888516937, 0.689298517260638, -0.35896288279556, -0.851634513731504 ], [ 0.891324824933511, -0.871783445853801, -1.60748884667543, -0.094932576315772, 1.079392035833435, -0.524304495335788, -0.830038786437388, 0.92426477182331, -0.257470555303161, -0.474007441947892, -0.674638394592455, -0.462671938765936 ], [ -1.219223188916014, 0.012737062054586, 0.853266276727684, -0.18753856455803, -0.345929968691887, -0.073993758989415, 0.604911529642089, -0.438348178859422, 0.729234451332738, -0.794112814568239, -0.642377312447185, -1.18600260593712 ], [ -0.53379211767886, -0.449166103417719, -0.188285029306758, -0.861903281936453, -1.043939138022043, -0.301784978259865, 0.042627771640196, -0.783164813358379, 0.748203015933544, -0.746156190676548, 0.765898102251887, -0.001438213702122 ], [ 0.980281749964959, -1.096271086253378, -1.745224739691011, 0.15823665671937, 0.087770066854804, -0.205451736845764, -0.203241209106229, 0.525124116680705, -1.204661106920646, -0.507045314907391, 0.546380710362297, -0.085376544815915 ], [ -1.156844401815521, -0.414115896580279, 1.317694349585207, 1.260067543200297, -0.271493193064966, 0.188758174770329, 1.858423779069482, -0.661301298997974, 0.362468258947188, 0.604024342310698, 0.032201139956581, -1.145521730438743 ], [ 0.28069396580971, -0.241918435766094, -1.482691354593602, -0.628425930818819, -0.159597151124371, 0.042897731816222, -0.219852316766645, -0.342337343952905, 0.561907623427395, -1.158898548786681, -0.401719639319422, -0.110139047808454 ], [ 0.396278706529673, -0.002321182643471, -0.881238729197186, -0.115061395025692, 0.223057347378473, 0.210625066119088, 0.185903335512513, 0.866093587590262, -0.239994814201318, -0.545013808860902, 1.162869018211489, -0.609693718766035 ] ]
				}
 ]
		}
,
		"input_normalization" : 		{
			"cols" : 12,
			"data_max" : [ 1.0, 1.0, 1.0, 1.0, 1.0, 1.0, 1.0, 1.0, 1.0, 1.0, 1.0, 1.0 ],
			"data_min" : [ -1.0, -1.0, -1.0, -1.0, -1.0, -1.0, -1.0, -1.0, 0.0, 0.0, 0.0, 0.0 ],
			"max" : 1.0,
			"min" : -1.0
		}
,
		"synth_descriptors_regressor" : 		{
			"layers" : [ 				{
					"activation" : 3,
					"biases" : [ 2.28210730656635, -0.529858103397449, -4.988222244485061 ],
					"cols" : 3,
					"rows" : 8,
					"weights" : [ [ -2.873387697170629, -2.734647708404342, 1.115013246647248 ], [ -0.28110852236075, 0.349374618853239, -0.152993812191111 ], [ 3.224969053170449, 0.196781106115774, -4.480980093160026 ], [ -0.375463915955447, 0.564832458929117, 1.588184394832099 ], [ -0.823746513717083, 7.798555678919612, -2.41155439935504 ], [ 0.327020937246901, -0.065798409165161, -0.019804498262989 ], [ 1.651550708889048, 0.228064646315533, -0.895313116563134 ], [ 1.502780564537921, 5.343538299911301, 3.50223824530181 ] ]
				}
, 				{
					"activation" : 3,
					"biases" : [ -0.725772599942072, -0.262559223648887, 0.620250529501886 ],
					"cols" : 3,
					"rows" : 3,
					"weights" : [ [ -2.879857543493777, 0.046185490280428, 2.2623159967158 ], [ -0.915486902470045, -4.246106098677086, -1.4503799866839 ], [ -0.188705288762341, -4.089448361063662, -0.71646019557631 ] ]
				}
, 				{
					"activation" : 0,
					"biases" : [ 0.092754808420886, -0.186642085498161, -0.349563026905195, 0.293824037074128, 0.393213894830542, -0.207624897791528, 0.060146510922995, 0.218665467224425, 0.185850142249856, -0.420834333014244, -0.011534180367399, -0.340864446164894 ],
					"cols" : 12,
					"rows" : 3,
					"weights" : [ [ -0.664407814497295, 0.915892154244981, 1.02107481895391, -1.029780997630356, -1.170827757680399, 0.536285277536823, -0.07786688965409, -0.700492755950558, -1.661862029421533, -0.443741801933645, 1.195663377117186, 0.014888130892471 ], [ 0.513604267873187, -0.65607059819198, -0.431827045243733, 0.759578799686447, 0.471994231140991, -0.439699649382513, -0.357285509219104, 0.435594104200268, 1.982032819537718, 0.406203437877423, -0.440897610817105, 1.311227639491083 ], [ -0.432100757617122, 1.106955902492913, 0.673027603423541, -1.302829739288515, -1.027768863136982, 0.821992903526153, 0.181089732567801, -0.30390158176187, -2.583203721275626, -1.410164655381856, 1.683745661740054, -0.102535297292127 ] ]
				}
 ]
		}
,
		"synth_descriptors_normalization" : 		{
			"cols" : 8,
			"data_max" : [ 0.0, 20.0, 135.0, 20.0, 0.0, 20.0, 135.0, 1.0 ],
			"data_min" : [ -100.0, -20.0, 35.0, -20.0, -100.0, -20.0, 35.0, 0.0 ],
			"max" : 1.0,
			"min" : -1.0
		}

	}

}
