{
	"meta" : 	{
		"header" : "Regressor Analysis",
		"info" : 		{
			"title" : "Quantussy Gamepad Test (4x4 grid)",
			"description" : "16 sounds, spread across -1. to 1. range",
			"comment" : "Created while testing dk.regressorcreate~ with audio from output C.",
			"date_created" : "2024-02-19 / 19:48:01",
			"num_entries" : 16,
			"input_dimensions" : [ 2 ],
			"output_dimensions" : [ 9 ],
			"output_parameter_names" : [ "frequency", "chaos", "ramp", "curve", "ratea", "rateb", "ratec", "rated", "ratee" ],
			"synth_descriptors_analyzed" : 1
		}
,
		"setttings" : 		{
			"fftsettings" : "256 64 512 for the small size. medium is 512 64 1024 and when analyzing the largest window (22050) it's 2048 128 2048 (all relative to a 44.1k sample rate). this only applies to the internal parallel descriptor analysis.",
			"numframes" : "256, 4410, 22050 (relative to a 44.1k sample rate)",
			"descriptors" : "mean of loudness, deriv of loudness, mean of centroid, deriv of centroid, mean of flatness, deriv of flatness, mean of pitch, pitch confidence",
			"comment" : "8d of descriptors for the built-in parallel audio analysis of descriptor input for when being used to drive the regressor with audio input"
		}

	}
,
	"data" : 	{
		"datasets" : 		{
			"input" : 			{
				"cols" : 2,
				"data" : 				{
					"0" : [ -1.0, -1.0 ],
					"1" : [ -0.338582664728165, -1.0 ],
					"10" : [ 0.338582664728165, 0.338582664728165 ],
					"11" : [ 1.0, 0.338582664728165 ],
					"12" : [ -1.0, 1.0 ],
					"13" : [ -0.338582664728165, 1.0 ],
					"14" : [ 0.338582664728165, 1.0 ],
					"15" : [ 1.0, 1.0 ],
					"2" : [ 0.338582664728165, -1.0 ],
					"3" : [ 1.0, -1.0 ],
					"4" : [ -1.0, -0.338582664728165 ],
					"5" : [ -0.338582664728165, -0.338582664728165 ],
					"6" : [ 0.338582664728165, -0.338582664728165 ],
					"7" : [ 1.0, -0.338582664728165 ],
					"8" : [ -1.0, 0.338582664728165 ],
					"9" : [ -0.338582664728165, 0.338582664728165 ]
				}

			}
,
			"output" : 			{
				"cols" : 9,
				"data" : 				{
					"0" : [ -0.033842977136374, -0.213738426566124, -0.438311964273453, 0.850771486759186, -0.00891375541687, -0.578152358531952, 0.32968607544899, -0.483761429786682, -0.486965894699097 ],
					"1" : [ -0.023093553259969, -0.605217456817627, -0.186868235468864, 0.355713546276093, -0.367825418710709, -0.091674797236919, 0.431722968816757, -0.136029914021492, -0.132870316505432 ],
					"10" : [ -0.300996214151382, -0.212526187300682, 0.155333787202835, -0.568631231784821, 0.638565957546234, -0.120813436806202, 0.232180401682854, -0.400849670171738, 0.533617854118347 ],
					"11" : [ 0.47561839222908, -0.34453484416008, 0.596770942211151, -0.968208014965057, -0.099011711776257, 0.194204941391945, 0.388336032629013, -0.385177582502365, -0.24152435362339 ],
					"12" : [ 0.388459861278534, -0.034944575279951, 0.069349966943264, -0.577870965003967, 0.267908036708832, 0.04627101495862, 0.633151888847351, -0.253019988536835, -0.157790422439575 ],
					"13" : [ 0.005873457062989, 0.594230234622955, -0.208807647228241, -0.888028979301453, -0.283124595880508, -0.381576001644135, 0.135435685515404, -0.272844463586807, -0.84610116481781 ],
					"14" : [ 0.296712338924408, -0.415722131729126, -0.048480030149221, 0.683879375457764, 0.085966601967812, 0.410790234804153, 0.760159015655518, -0.738573491573334, 0.840465664863586 ],
					"15" : [ -0.812919795513153, -0.681069314479828, 0.859313011169434, 0.145891770720482, -0.349857747554779, 0.282772451639175, 0.957004010677338, -0.602130532264709, -0.920301854610443 ],
					"2" : [ 0.11092533916235, -0.804333746433258, -0.130359709262848, -0.758640050888062, -0.690743446350098, 0.560599863529205, 0.042789082974195, 0.418125152587891, 0.985260486602783 ],
					"3" : [ -0.388792634010315, -0.061448812484741, 0.10419687628746, -0.694399774074554, 0.771246612071991, 0.812417924404144, 0.539970993995667, 0.878614544868469, 0.168940275907516 ],
					"4" : [ 0.446447789669037, -0.680062353610992, 0.953090310096741, -0.406861871480942, 0.639571130275726, -0.322408854961395, 0.009175497107208, 0.818309366703033, -0.167234674096107 ],
					"5" : [ 0.392548173666, 0.508552193641663, 0.451611459255219, 0.69088488817215, 0.489266008138657, -0.658274531364441, 0.159193903207779, -0.429721415042877, -0.857896089553833 ],
					"6" : [ 0.812639892101288, 0.639465153217316, 0.184077546000481, 0.102176584303379, -0.936158716678619, 0.642987430095673, 0.968200981616974, -0.755300939083099, -0.885766386985779 ],
					"7" : [ 0.226070761680603, 0.561100363731384, 0.898943901062012, -0.274653285741806, 0.425522536039352, 0.451908975839615, 0.918337821960449, -0.4559665620327, -0.284604787826538 ],
					"8" : [ 0.723268091678619, -0.633555233478546, 0.301541477441788, -0.254620254039764, -0.445565968751907, 0.184911519289017, 0.819685161113739, 0.197541013360023, -0.581257164478302 ],
					"9" : [ -0.260055005550385, 0.703808963298798, 0.426607608795166, 0.092719838023186, -0.984169185161591, 0.743269979953766, 0.835244059562683, 0.092686638236046, -0.557821035385132 ]
				}

			}

		}
,
		"synth_descriptors" : 		{
			"descriptors_256" : 			{
				"cols" : 8,
				"data" : 				{
					"0" : [ -6.122880935668945, 0.470273494720459, 55.429370880126953, -1.453425884246826, -43.78082275390625, -0.82435929775238, 27.48699951171875, 0.0 ],
					"1" : [ -6.539654731750488, 0.141568347811699, 54.150131225585938, 0.018944812938571, -48.464954376220703, 0.346127718687057, 27.48699951171875, 0.0 ],
					"10" : [ -12.641918182373047, 1.400171279907227, 47.739952087402344, 0.699816882610321, -65.678237915039062, 2.403835296630859, 27.48699951171875, 0.0 ],
					"11" : [ -4.355505466461182, 0.011390924453735, 67.826263427734375, 1.503829956054688, -33.431789398193359, 0.556189119815826, 79.435623168945312, 0.11377752572298 ],
					"12" : [ -3.881337642669678, 0.007954995147884, 87.056488037109375, -0.256543278694153, -39.802562713623047, 0.261700212955475, 88.566070556640625, 0.851956784725189 ],
					"13" : [ -11.96479320526123, 1.480451583862305, 47.498519897460938, 0.936255156993866, -78.558677673339844, 6.023587226867676, 27.48699951171875, 0.0 ],
					"14" : [ -2.851427555084229, -0.040173213928938, 90.958786010742188, -1.043750405311584, -33.248565673828125, -0.970178246498108, 89.564979553222656, 0.469486892223358 ],
					"15" : [ -8.810558319091797, -0.126368522644043, 50.222766876220703, -0.040000051259995, -55.049110412597656, -0.273025631904602, 27.48699951171875, 0.0 ],
					"2" : [ -6.258267402648926, 0.107753433287144, 50.455184936523438, -0.03814509883523, -48.870635986328125, -0.322851777076721, 27.48699951171875, 0.0 ],
					"3" : [ -8.490273475646973, 0.222776100039482, 50.990821838378906, 1.027148008346558, -60.417709350585938, 3.724773406982422, 27.48699951171875, 0.0 ],
					"4" : [ -9.466739654541016, 0.215841934084892, 60.373001098632812, -2.611016035079956, -36.279052734375, -1.007836103439331, 27.48699951171875, 0.0 ],
					"5" : [ -6.778164386749268, 0.138820648193359, 57.069477081298828, 2.387981653213501, -47.655330657958984, 1.877394318580627, 27.48699951171875, 0.0 ],
					"6" : [ -4.179558277130127, -0.002764304401353, 133.42816162109375, 0.080451101064682, -38.701488494873047, 0.908787906169891, 114.950187683105469, 0.827070593833923 ],
					"7" : [ -4.392677307128906, 0.054140169173479, 82.872749328613281, 0.896831095218658, -20.277021408081055, 0.699143171310425, 93.18389892578125, 0.536736607551575 ],
					"8" : [ -3.208544015884399, 0.013694922439754, 118.155876159667969, -1.170452833175659, -24.68742561340332, -0.712942123413086, 111.931182861328125, 0.713794708251953 ],
					"9" : [ -7.892524719238281, -0.306507587432861, 71.695915222167969, 2.318032503128052, -50.053237915039062, 4.182467937469482, 72.935798645019531, 0.372955441474915 ]
				}

			}
,
			"descriptors_4410" : 			{
				"cols" : 8,
				"data" : 				{
					"0" : [ -2.498990535736084, 0.03588904067874, 81.291206359863281, 0.301696538925171, -81.285476684570312, 0.006439541466534, 92.766792297363281, 0.982205212116241 ],
					"1" : [ -3.863600015640259, 0.008691762574017, 49.389995574951172, 0.050433322787285, -73.777351379394531, 0.071294978260994, 27.48699951171875, 0.0 ],
					"10" : [ -4.346296787261963, 0.145456328988075, 76.332740783691406, 0.911521971225739, -69.248374938964844, 0.285877227783203, 104.902702331542969, 0.293094009160995 ],
					"11" : [ -4.153852462768555, -0.036288592964411, 65.57794189453125, -0.087362453341484, -57.919124603271484, -0.098745137453079, 72.802291870117188, 0.541297852993011 ],
					"12" : [ -6.491783142089844, -0.149718299508095, 47.414333343505859, -0.152025923132896, -113.219886779785156, -0.174271807074547, 27.48699951171875, 0.0 ],
					"13" : [ -6.182503700256348, 0.146388977766037, 48.222976684570312, 0.502605974674225, -81.483650207519531, 0.393917739391327, 76.786956787109375, 0.230297386646271 ],
					"14" : [ -1.375179052352905, -0.009424463845789, 89.668052673339844, 0.016576642170548, -58.682731628417969, 0.003702942049131, 88.6754150390625, 0.970432877540588 ],
					"15" : [ -4.801190376281738, 0.074854619801044, 39.896358489990234, 0.008267207071185, -92.786521911621094, -0.072728350758553, 27.48699951171875, 0.0 ],
					"2" : [ -4.901271820068359, -0.00662439968437, 44.999736785888672, 0.024583483114839, -96.293548583984375, -0.011636733077466, 27.48699951171875, 0.0 ],
					"3" : [ -5.154766082763672, 0.068374089896679, 37.342075347900391, 0.086390011012554, -101.725936889648438, 0.133237957954407, 27.48699951171875, 0.0 ],
					"4" : [ -8.548624992370605, 0.095533438026905, 36.818656921386719, -0.264125496149063, -109.627037048339844, 0.415485441684723, 27.48699951171875, 0.0 ],
					"5" : [ -3.959630489349365, 0.024445241317153, 44.555572509765625, -0.091874450445175, -84.873291015625, 0.030884834006429, 27.48699951171875, 0.0 ],
					"6" : [ -5.240079879760742, -0.024052836000919, 76.907180786132812, -0.981066882610321, -63.731159210205078, 0.040633890777826, 107.267372131347656, 0.0 ],
					"7" : [ -3.107542276382446, -0.011982828378677, 63.299560546875, -0.144597187638283, -51.240097045898438, -0.01908808387816, 90.449951171875, 0.297127217054367 ],
					"8" : [ -1.722263097763062, -0.015334981493652, 118.913017272949219, 0.019229266792536, -31.426328659057617, -0.016549523919821, 111.492233276367188, 0.517257869243622 ],
					"9" : [ -3.049862384796143, 0.026693241670728, 76.815177917480469, 0.242631033062935, -33.541725158691406, 0.341005593538284, 89.055107116699219, 0.500519096851349 ]
				}

			}
,
			"descriptors_22050" : 			{
				"cols" : 8,
				"data" : 				{
					"0" : [ -2.347052574157715, -0.007567369844764, 89.951362609863281, 0.173277214169502, -93.26068115234375, 0.062084157019854, 82.976150512695312, 0.988109350204468 ],
					"1" : [ -3.698430061340332, -0.018651213496923, 41.291049957275391, 0.105776026844978, -99.931686401367188, 0.071917362511158, 47.943595886230469, 0.732416093349457 ],
					"10" : [ -1.625460147857666, 0.028415251523256, 102.546501159667969, 0.456431001424789, -24.412216186523438, 0.149906367063522, 99.959953308105469, 0.270506918430328 ],
					"11" : [ -5.597343921661377, -0.04385432600975, 60.870029449462891, -0.005478715058416, -82.14495849609375, 0.000763029733207, 61.373226165771484, 0.929279267787933 ],
					"12" : [ -7.464959144592285, -0.014967372640967, 32.530948638916016, -0.082708917558193, -116.246910095214844, 0.077286370098591, 29.271699905395508, 0.291903585195541 ],
					"13" : [ -2.907773017883301, 0.022292632609606, 51.770973205566406, 0.311046540737152, -49.685535430908203, 0.330957800149918, 78.005157470703125, 0.342011332511902 ],
					"14" : [ -1.985601782798767, -0.029892299324274, 83.6396484375, -0.129721000790596, -61.835975646972656, 0.014396791346371, 88.671669006347656, 0.987593054771423 ],
					"15" : [ -3.426594495773315, -0.004153909627348, 50.29913330078125, 0.269689649343491, -93.261001586914062, 0.129923045635223, 45.066287994384766, 0.690932989120483 ],
					"2" : [ -4.980354309082031, -0.047631431370974, 52.682895660400391, 0.153108149766922, -103.567718505859375, 0.072730235755444, 53.803409576416016, 0.725613296031952 ],
					"3" : [ -6.824865341186523, -0.038775704801083, 32.513805389404297, 0.16452568769455, -110.91595458984375, 0.218232050538063, 33.922603607177734, 0.302863001823425 ],
					"4" : [ -5.021634101867676, -0.05668181180954, 41.444023132324219, 0.080991677939892, -98.137847900390625, 0.068592548370361, 44.236793518066406, 0.74449747800827 ],
					"5" : [ -4.057733535766602, -0.006345473695546, 44.512931823730469, 0.096163891255856, -93.837432861328125, 0.084145404398441, 44.256095886230469, 0.740369915962219 ],
					"6" : [ -5.885296821594238, -0.025660758838058, 43.08111572265625, -0.313825935125351, -61.129524230957031, 0.021792270243168, 53.506271362304688, 0.332698553800583 ],
					"7" : [ -3.663404941558838, -0.030065964907408, 48.346378326416016, -0.087298676371574, -92.639915466308594, -0.028097126632929, 53.437755584716797, 0.812092840671539 ],
					"8" : [ -2.490973234176636, -0.034302458167076, 125.105201721191406, -0.031486619263887, -30.776840209960938, 0.038625657558441, 118.644271850585938, 0.202669784426689 ],
					"9" : [ -2.234167337417603, -0.020852778106928, 72.50860595703125, 0.174070686101913, -22.188446044921875, 0.190746128559113, 86.428741455078125, 0.261415272951126 ]
				}

			}

		}
,
		"synth_normalized_descriptors" : 		{
			"descriptors_22050" : 			{
				"cols" : 8,
				"data" : 				{
					"0" : [ 0.953058948516846, -0.000378368492238, 0.099027252197266, 0.008663860708475, -0.865213623046875, 0.003104207850993, -0.040476989746094, 0.976218700408936 ],
					"1" : [ 0.926031398773193, -0.000932560674846, -0.874179000854492, 0.005288801342249, -0.998633728027344, 0.003595868125558, -0.741128082275391, 0.464832186698914 ],
					"10" : [ 0.967490797042847, 0.001420762576163, 0.350930023193359, 0.022821550071239, 0.511755676269531, 0.007495318353176, 0.299199066162109, -0.458986163139343 ],
					"11" : [ 0.888053121566772, -0.002192716300488, -0.482599411010742, -0.000273935752921, -0.642899169921875, 0.00003815148666, -0.47253547668457, 0.858558535575867 ],
					"12" : [ 0.850700817108154, -0.000748368632048, -1.04938102722168, -0.00413544587791, -1.324938201904297, 0.00386431850493, -1.11456600189209, -0.416192829608917 ],
					"13" : [ 0.941844539642334, 0.00111463163048, -0.664580535888672, 0.015552327036858, 0.006289291381836, 0.016547890007496, -0.139896850585937, -0.315977334976196 ],
					"14" : [ 0.960287964344025, -0.001494614966214, -0.02720703125, -0.00648605003953, -0.236719512939453, 0.000719839567318, 0.073433380126953, 0.975186109542847 ],
					"15" : [ 0.931468110084534, -0.000207695481367, -0.694017333984375, 0.013484482467174, -0.865220031738281, 0.006496152281761, -0.798674240112305, 0.381865978240967 ],
					"2" : [ 0.900392913818359, -0.002381571568549, -0.646342086791992, 0.007655407488346, -1.071354370117187, 0.003636511787772, -0.62393180847168, 0.451226592063904 ],
					"3" : [ 0.863502693176269, -0.001938785240054, -1.049723892211914, 0.008226284384727, -1.218319091796875, 0.010911602526903, -1.021547927856445, -0.394273996353149 ],
					"4" : [ 0.899567317962646, -0.002834090590477, -0.871119537353516, 0.004049583896995, -0.962756958007812, 0.003429627418518, -0.815264129638672, 0.488994956016541 ],
					"5" : [ 0.918845329284668, -0.000317273684777, -0.809741363525391, 0.004808194562793, -0.876748657226562, 0.004207270219922, -0.814878082275391, 0.480739831924438 ],
					"6" : [ 0.882294063568115, -0.001283037941903, -0.838377685546875, -0.015691296756268, -0.222590484619141, 0.001089613512158, -0.629874572753906, -0.334602892398834 ],
					"7" : [ 0.926731901168823, -0.00150329824537, -0.73307243347168, -0.004364933818579, -0.852798309326172, -0.001404856331646, -0.631244888305664, 0.624185681343079 ],
					"8" : [ 0.950180535316467, -0.001715122908354, 0.802104034423828, -0.001574330963194, 0.384463195800781, 0.001931282877922, 0.672885437011719, -0.594660431146622 ],
					"9" : [ 0.955316653251648, -0.001042638905346, -0.249827880859375, 0.008703534305096, 0.556231079101563, 0.009537306427956, 0.028574829101562, -0.477169454097748 ]
				}

			}

		}

	}
,
	"fits" : 	{
		"input_regressor" : 		{
			"layers" : [ 				{
					"activation" : 3,
					"biases" : [ -0.667084571161375, 0.517524436120312, -0.669308440088997 ],
					"cols" : 3,
					"rows" : 2,
					"weights" : [ [ 3.229268290586581, 0.654688806824445, -1.763150913193348 ], [ -0.860364995472567, -1.444643680000189, -2.410085439743262 ] ]
				}
, 				{
					"activation" : 3,
					"biases" : [ 0.780791415388836, 0.160119172816128, -0.769058144757623, 0.041184788658472 ],
					"cols" : 4,
					"rows" : 3,
					"weights" : [ [ -2.037031971700614, 1.770530878858317, -1.624130578828862, -1.018318517140785 ], [ -0.675052290451604, 0.394241587349446, 2.847349042462983, 2.459964448448457 ], [ 1.850192733600709, 2.036789263902786, -1.710790368075686, 0.753292794698066 ] ]
				}
, 				{
					"activation" : 3,
					"biases" : [ -0.562162681055298, -0.217087531540062, 0.027721739376926, -0.079372046943852, 0.689126683791343 ],
					"cols" : 5,
					"rows" : 4,
					"weights" : [ [ -1.36282002559732, 0.31873624916496, -0.221271351041703, 1.911447279586433, -0.591532361892722 ], [ -0.304281344091559, -1.173101877125106, -0.582256419663272, 0.609461328473457, -0.79663230149525 ], [ -1.94301916858419, 0.744021413246315, 0.532144546391035, 0.383198360039324, 1.856693051445447 ], [ -0.623307419150771, 0.588181372783712, -2.262929524214632, 1.856672939335106, -0.842675053800482 ] ]
				}
, 				{
					"activation" : 3,
					"biases" : [ -0.867767046245421, -0.949309346829662, -0.617118001854975, 1.239989489423163, 0.015465185495808, -0.750429939395472 ],
					"cols" : 6,
					"rows" : 5,
					"weights" : [ [ 0.13840210179924, 0.182916973846666, -0.090759101702623, 0.652185473511968, 1.330860743005439, -1.814770209982471 ], [ 1.831828575498188, 0.954499936051169, -0.175078929936635, 1.096935137916977, -0.496699239447066, 1.439676881062467 ], [ -1.369110448055922, -0.654520973019506, 0.821136640791005, -0.519088734997299, 0.383776057319988, -0.215810026997347 ], [ -0.688660966781107, -0.276923081854277, -1.235337576845756, -2.144146623415208, 1.12541601239132, 1.032693663617368 ], [ -0.625438447029967, 1.105765416104622, -0.78035652192046, 0.911159559298721, 1.211657022736954, -1.29419106157398 ] ]
				}
, 				{
					"activation" : 3,
					"biases" : [ 0.932823623348627, -0.655581658157822, -2.125401613976072, 0.523268103240618, -0.359001297797031, 0.359820811427342, -0.514732212618655 ],
					"cols" : 7,
					"rows" : 6,
					"weights" : [ [ 0.161014496212103, -1.18430485466029, -1.788998663407522, 1.135244806563297, -1.701254660581097, -0.394552157019946, -0.979327776133103 ], [ 0.091241837529321, 0.182153894285176, 0.967740464187154, 0.843279862983843, 0.96174486213908, 1.882670512764185, -1.945324492509908 ], [ 0.546184833936729, 0.345510918347952, -1.91970643454809, -0.093281554657549, -0.292808325388087, -0.632911756251174, 0.209111594210503 ], [ -1.272992785846849, -0.70639000361935, 1.838866442442184, -0.780925643033572, -1.03864590511582, 0.278889384012632, 0.188132866661247 ], [ 0.145784163538612, -1.163585125457948, -0.146432596485618, 0.307623111373502, -0.072737574715482, 1.48836582072556, 0.699564974982483 ], [ -0.225412320297975, -0.301309485685059, 0.535600737494868, -1.551153453156878, -0.15682062262854, 0.351334827953062, 1.791602588734445 ] ]
				}
, 				{
					"activation" : 0,
					"biases" : [ -0.320525623816791, -0.179727975876684, 0.785174263383266, -0.635078856927351, 0.519322773321233, 0.357375505352921, 0.612909035080874, 0.028378114770093, -0.160561212892731 ],
					"cols" : 9,
					"rows" : 7,
					"weights" : [ [ 0.590639038878137, -0.147040657191765, -1.095823956124425, 0.438961023100147, 1.415682140072081, -0.93783560514186, -1.248091245970737, 1.446651237709142, 1.371356616501044 ], [ -2.041820081854722, -0.00985971706709, -0.64275483046306, -0.78298062021475, 0.463920224303669, -0.846106968780775, -0.712770784654578, -0.048757734423923, -0.254549092129611 ], [ 0.214566885653848, 0.684469785599071, 0.365566765466574, -0.472411835738494, 1.38297182967467, -0.199184801681317, -0.463044372253301, 1.318659757172574, -0.033660857916381 ], [ -0.87583930818433, -0.23764960668247, 1.161582481392881, -0.225210283261637, 1.371998006444552, 0.788502358719698, 0.468325578086601, 0.453630736344812, 0.563925821837694 ], [ 1.078483561006671, -0.164204362903653, -0.009189418100402, 0.054650239813618, -0.930563249542175, 1.242960551666219, 0.630988040835039, -0.166042480559519, 0.966711151346684 ], [ -1.633510843558605, 0.004573209631627, -1.153959741596582, 0.724009466644782, -0.386614963338072, -0.723798379248346, -0.319379171271617, -0.772619211155636, -0.185883634435747 ], [ -1.748589489668532, -0.027471224657167, 0.634009270375588, -0.370637729687945, 0.357219456866372, 0.324120014629459, 0.248248703252371, 0.328127199038696, -0.560542501490579 ] ]
				}
 ]
		}
,
		"input_normalization" : 		{
			"cols" : 9,
			"data_max" : [ 1.0, 1.0, 1.0, 1.0, 1.0, 1.0, 1.0, 1.0, 1.0 ],
			"data_min" : [ -1.0, -1.0, -1.0, -1.0, -1.0, -1.0, -1.0, -1.0, -1.0 ],
			"max" : 1.0,
			"min" : -1.0
		}
,
		"synth_descriptors_regressor" : 		{
			"layers" : [ 				{
					"activation" : 3,
					"biases" : [ 1.242596379494423, 2.139457919601022, 0.051410392037645 ],
					"cols" : 3,
					"rows" : 8,
					"weights" : [ [ 3.040085063921365, -0.864105324789674, -14.293662463631469 ], [ -0.008387422187612, -0.882997582573718, -0.933791626099781 ], [ -0.848641927136302, -6.47226356335623, 2.068959335942065 ], [ 0.269924279593056, -3.816992130098225, -2.342954808115228 ], [ 4.584581143874408, -2.829453573684916, -6.348654632172754 ], [ 0.019494840478731, -1.265890067355051, -0.937329110317314 ], [ 2.950867637843836, 6.978253967120132, -9.353172943360997 ], [ 4.635862559899616, -2.212323538005328, 3.634620575081941 ] ]
				}
, 				{
					"activation" : 3,
					"biases" : [ 1.106327204640084, -1.728370377905076, -0.647564138233643 ],
					"cols" : 3,
					"rows" : 3,
					"weights" : [ [ 0.483125561189271, -2.877225968661868, -2.46487339825113 ], [ -1.561216579882798, 0.991059811888531, 2.618510230462001 ], [ 1.086033502226996, 5.861460311016294, -5.379685995759827 ] ]
				}
, 				{
					"activation" : 0,
					"biases" : [ 0.14530214403478, -0.297316343670221, 0.277032879048463, -0.064093175196965, 0.374693601819117, -0.082232037880877, 0.338566208934814, 0.024746072052557, -0.040005277009125 ],
					"cols" : 9,
					"rows" : 3,
					"weights" : [ [ -0.452706252703477, -1.831457454731674, -0.649872509586492, 1.163307704745987, 1.299397529895029, -0.938980103754116, -0.748567624147849, -0.078701406117739, 2.072763939375947 ], [ -0.148001032938194, -0.368498797199613, -0.21253090660186, -0.751473409257848, -0.25670148283061, 0.606917255009685, -0.027802662107619, 0.584129055598877, 0.658975941327614 ], [ -0.439805072029979, -1.142304225492495, -0.637838570349155, -0.08000389275016, -0.130350409169482, 0.309255221872596, -0.20351490882526, 0.15479530594589, 1.559267265774859 ] ]
				}
 ]
		}
,
		"synth_descriptors_normalization" : 		{
			"cols" : 8,
			"data_max" : [ 0.0, 20.0, 135.0, 20.0, 0.0, 20.0, 135.0, 1.0 ],
			"data_min" : [ -100.0, -20.0, 35.0, -20.0, -100.0, -20.0, 35.0, 0.0 ],
			"max" : 1.0,
			"min" : -1.0
		}

	}

}
